{"weights":[[[4.9802119401428575,5.1773895154471115,-2.79617032017589,-5.903543831789885,-6.05847967392646],[6.443389427747705,-1.969437745517217,-2.4837813155091726,-5.951415766730203,6.336457937024494],[1.262792117380059,0.12922643386646154,0.8719901693248678,-1.3359171233739477,0.5745775154313418],[-4.311235744292625,1.6016792080956432,2.0650845763629966,3.7818509555712403,-4.8565816130792365],[1.8966008379647379,-6.947650166476548,-0.702254921610986,-6.970378598052591,6.265976280973521]],[[-2.557533563007433,-4.856835022098448,0.632117573850444,2.474845668535304,6.265863037963859]]],"biases":[[[-2.1228152267038554],[4.634786220124277],[-1.0256941697907254],[-3.0929412759753943],[-4.45322496971174]],[[1.6407922516031015]]],"edge_vel":[[[0.00003832171976118397,0.000038320969438896616,-1.250420280991402e-19,0.00003804526605905447,2.7570328634367925e-7],[0.00002981545055840515,0.000029815450130248957,-2.0977911275010544e-19,0.000029815455537012806,7.326761413108062e-12],[-0.000019893779371351457,-0.00001989288930296201,1.4310944906698596e-18,-0.000019764231519174555,-1.2868888873762936e-7],[-0.00004011895757569903,-0.000040118948980027844,4.312588510735916e-19,-0.00004011889784727967,-6.608175807748874e-11],[-2.319657203588913e-7,-2.2957426272680034e-7,4.545005825292998e-25,-7.596554258027403e-11,-2.2951249305705197e-7]],[[-1.0981071694463796e-6,-1.178821472013984e-6,-3.415850872392807e-7,-1.4284303466843403e-7,-3.204638863366753e-10]]],"neuron_vel":[[[0.00003832171976173005],[0.000029815456925786133],[-0.000019893794989994985],[-0.00004011896505098646],[-2.31972889875476e-7]],[[-1.228614353470454e-6]]]}